{
  "kind": "stellarator_itg_portfolio_gate",
  "claim_level": "reduced_multi_surface_alpha_ky_objective_gate_not_full_vmec_production",
  "source_scope": "reduced_qa_max_mode1_surrogate_rows",
  "production_nonlinear_optimization_claim": false,
  "passed": true,
  "parameter_names": [
    "minor_radius_log_shift",
    "vertical_elongation_shift",
    "helical_ripple_amplitude",
    "magnetic_shear_shift"
  ],
  "objective_names": [
    "growth",
    "quasilinear_flux"
  ],
  "initial_params": [
    0.2800000011920929,
    0.46000000834465027,
    0.41999998688697815,
    -0.3199999928474426
  ],
  "sample_set": {
    "surfaces": [
      0.5,
      0.64,
      0.78
    ],
    "alphas": [
      0.0,
      1.0471975511965976
    ],
    "ky_values": [
      0.1,
      0.3,
      0.5
    ],
    "surface_weights": null,
    "alpha_weights": null,
    "ky_weights": null,
    "reduction": "weighted_mean",
    "n_samples": 18
  },
  "samples": [
    {
      "surface": 0.5,
      "alpha": 0.0,
      "ky": 0.1,
      "weight": 0.05555555555555555
    },
    {
      "surface": 0.5,
      "alpha": 0.0,
      "ky": 0.3,
      "weight": 0.05555555555555555
    },
    {
      "surface": 0.5,
      "alpha": 0.0,
      "ky": 0.5,
      "weight": 0.05555555555555555
    },
    {
      "surface": 0.5,
      "alpha": 1.0471975511965976,
      "ky": 0.1,
      "weight": 0.05555555555555555
    },
    {
      "surface": 0.5,
      "alpha": 1.0471975511965976,
      "ky": 0.3,
      "weight": 0.05555555555555555
    },
    {
      "surface": 0.5,
      "alpha": 1.0471975511965976,
      "ky": 0.5,
      "weight": 0.05555555555555555
    },
    {
      "surface": 0.64,
      "alpha": 0.0,
      "ky": 0.1,
      "weight": 0.05555555555555555
    },
    {
      "surface": 0.64,
      "alpha": 0.0,
      "ky": 0.3,
      "weight": 0.05555555555555555
    },
    {
      "surface": 0.64,
      "alpha": 0.0,
      "ky": 0.5,
      "weight": 0.05555555555555555
    },
    {
      "surface": 0.64,
      "alpha": 1.0471975511965976,
      "ky": 0.1,
      "weight": 0.05555555555555555
    },
    {
      "surface": 0.64,
      "alpha": 1.0471975511965976,
      "ky": 0.3,
      "weight": 0.05555555555555555
    },
    {
      "surface": 0.64,
      "alpha": 1.0471975511965976,
      "ky": 0.5,
      "weight": 0.05555555555555555
    },
    {
      "surface": 0.78,
      "alpha": 0.0,
      "ky": 0.1,
      "weight": 0.05555555555555555
    },
    {
      "surface": 0.78,
      "alpha": 0.0,
      "ky": 0.3,
      "weight": 0.05555555555555555
    },
    {
      "surface": 0.78,
      "alpha": 0.0,
      "ky": 0.5,
      "weight": 0.05555555555555555
    },
    {
      "surface": 0.78,
      "alpha": 1.0471975511965976,
      "ky": 0.1,
      "weight": 0.05555555555555555
    },
    {
      "surface": 0.78,
      "alpha": 1.0471975511965976,
      "ky": 0.3,
      "weight": 0.05555555555555555
    },
    {
      "surface": 0.78,
      "alpha": 1.0471975511965976,
      "ky": 0.5,
      "weight": 0.05555555555555555
    }
  ],
  "objective_weights": [
    0.5,
    0.5
  ],
  "base_value": 0.05894201993942261,
  "base_sample_values": [
    0.06102040596306324,
    0.06306932121515274,
    0.0370972603559494,
    0.06644812040030956,
    0.06730505265295506,
    0.039207134395837784,
    0.06483616307377815,
    0.06645664945244789,
    0.039381605572998524,
    0.07047901302576065,
    0.07080315053462982,
    0.04154321178793907,
    0.06871017254889011,
    0.06993920728564262,
    0.04177224263548851,
    0.07453260384500027,
    0.07437774538993835,
    0.043977316468954086
  ],
  "base_objective_table": [
    [
      0.045475658029317856,
      0.07656515389680862
    ],
    [
      0.060726381838321686,
      0.0654122605919838
    ],
    [
      0.045475658029317856,
      0.028718862682580948
    ],
    [
      0.04686547443270683,
      0.08603076636791229
    ],
    [
      0.062342528253793716,
      0.0722675770521164
    ],
    [
      0.04686547815799713,
      0.031548790633678436
    ],
    [
      0.04829336702823639,
      0.08137895911931992
    ],
    [
      0.06399473547935486,
      0.06891856342554092
    ],
    [
      0.04829336702823639,
      0.030469844117760658
    ],
    [
      0.04967423528432846,
      0.09128379076719284
    ],
    [
      0.0655849277973175,
      0.07602137327194214
    ],
    [
      0.04967423900961876,
      0.033412184566259384
    ],
    [
      0.05120648071169853,
      0.0862138643860817
    ],
    [
      0.06734105944633484,
      0.07253735512495041
    ],
    [
      0.05120648071169853,
      0.03233800455927849
    ],
    [
      0.052567411214113235,
      0.0964977964758873
    ],
    [
      0.06889373809099197,
      0.07986175268888474
    ],
    [
      0.05256742238998413,
      0.03538721054792404
    ]
  ],
  "base_objective_tensor": [
    [
      [
        [
          0.045475658029317856,
          0.07656515389680862
        ],
        [
          0.060726381838321686,
          0.0654122605919838
        ],
        [
          0.045475658029317856,
          0.028718862682580948
        ]
      ],
      [
        [
          0.04686547443270683,
          0.08603076636791229
        ],
        [
          0.062342528253793716,
          0.0722675770521164
        ],
        [
          0.04686547815799713,
          0.031548790633678436
        ]
      ]
    ],
    [
      [
        [
          0.04829336702823639,
          0.08137895911931992
        ],
        [
          0.06399473547935486,
          0.06891856342554092
        ],
        [
          0.04829336702823639,
          0.030469844117760658
        ]
      ],
      [
        [
          0.04967423528432846,
          0.09128379076719284
        ],
        [
          0.0655849277973175,
          0.07602137327194214
        ],
        [
          0.04967423900961876,
          0.033412184566259384
        ]
      ]
    ],
    [
      [
        [
          0.05120648071169853,
          0.0862138643860817
        ],
        [
          0.06734105944633484,
          0.07253735512495041
        ],
        [
          0.05120648071169853,
          0.03233800455927849
        ]
      ],
      [
        [
          0.052567411214113235,
          0.0964977964758873
        ],
        [
          0.06889373809099197,
          0.07986175268888474
        ],
        [
          0.05256742238998413,
          0.03538721054792404
        ]
      ]
    ]
  ],
  "portfolio_report": {
    "kind": "objective_portfolio_sensitivity_report",
    "passed": true,
    "portfolio_contract": {
      "n_surfaces": 3,
      "n_alphas": 2,
      "n_ky": 3,
      "n_objectives": 2,
      "reduction": "weighted_mean",
      "uses_sample_weights": false,
      "uses_separable_sample_weights": false,
      "uses_objective_weights": false,
      "row_shape": [
        3,
        2,
        3,
        2
      ],
      "sample_shape": [
        3,
        2,
        3
      ],
      "n_samples": 18
    },
    "parameter_count": 4,
    "base_value": 0.05894201993942261,
    "base_row_norm": 0.3700644075870514,
    "scalar_gradient_gate": {
      "passed": true,
      "step": 0.005,
      "rtol": 0.05,
      "atol": 0.006,
      "max_abs_error": 1.851934939622879e-06,
      "max_rel_error": 0.00030865582327047986,
      "tangent_max_abs_error": 1.16787850856781e-06,
      "jacobian_ad": [
        [
          0.0004641604609787464,
          0.02180260419845581,
          0.03537221997976303,
          -0.07733598351478577
        ]
      ],
      "jacobian_fd": [
        [
          0.00046230852603912354,
          0.021801888942718506,
          0.03537274897098541,
          -0.07733777165412903
        ]
      ],
      "tangent_ad": [
        -0.009848499670624733
      ],
      "tangent_fd": [
        -0.0098496675491333
      ],
      "finite_difference_parallel": {
        "requested_workers": 2,
        "effective_workers": 2,
        "executor": "thread",
        "identity_contract": "parallel finite-difference columns must match serial columns"
      }
    },
    "row_jacobian_gate": {
      "passed": true,
      "step": 0.005,
      "rtol": 0.05,
      "atol": 0.006,
      "max_abs_error": 3.5315752029418945e-06,
      "max_rel_error": 0.00016688136383891106,
      "tangent_max_abs_error": 3.2410025596618652e-06,
      "jacobian_ad": [
        [
          0.0012329398887231946,
          0.014295644126832485,
          0.016547879204154015,
          -0.061972618103027344
        ],
        [
          -0.00034185158438049257,
          0.03557772561907768,
          0.06656626611948013,
          -0.10376517474651337
        ],
        [
          0.00143731152638793,
          0.01666528359055519,
          0.019290847703814507,
          -0.07224517315626144
        ],
        [
          -0.0005172987002879381,
          0.027785131707787514,
          0.054052140563726425,
          -0.07732854783535004
        ],
        [
          0.0012329401215538383,
          0.014295646920800209,
          0.016547881066799164,
          -0.06197262927889824
        ],
        [
          -0.00012822526332456619,
          0.013345981016755104,
          0.025121649727225304,
          -0.03892134130001068
        ],
        [
          0.001254531554877758,
          0.014538411051034927,
          0.015791263431310654,
          -0.06878972053527832
        ],
        [
          -0.0004136488714721054,
          0.03962548077106476,
          0.073267363011837,
          -0.12563081085681915
        ],
        [
          0.0014552184147760272,
          0.016864115372300148,
          0.018317384645342827,
          -0.07979398965835571
        ],
        [
          -0.0005950965569354594,
          0.030418135225772858,
          0.058644525706768036,
          -0.09195450693368912
        ],
        [
          0.0012545316712930799,
          0.014538412913680077,
          0.015791265293955803,
          -0.06878972798585892
        ],
        [
          -0.000151691390783526,
          0.014532397501170635,
          0.02702443301677704,
          -0.046070728451013565
        ],
        [
          0.0012760377721861005,
          0.014795354567468166,
          0.01712631620466709,
          -0.06450445204973221
        ],
        [
          -0.00041945165139622986,
          0.037164006382226944,
          0.06999638676643372,
          -0.10808492451906204
        ],
        [
          0.001472878735512495,
          0.017077676951885223,
          0.019768210127949715,
          -0.07445486634969711
        ],
        [
          -0.0005900332471355796,
          0.02875266782939434,
          0.05634481832385063,
          -0.07966583967208862
        ],
        [
          0.001276038121432066,
          0.01479535736143589,
          0.01712631992995739,
          -0.0645044595003128
        ],
        [
          -0.00015705068653915077,
          0.01391610223799944,
          0.026371264830231667,
          -0.04046907275915146
        ],
        [
          0.0012962031178176403,
          0.015021330676972866,
          0.016315799206495285,
          -0.07126937806606293
        ],
        [
          -0.0005004959530197084,
          0.041331253945827484,
          0.07696515321731567,
          -0.1302824169397354
        ],
        [
          0.0014892802573740482,
          0.017258847132325172,
          0.018746133893728256,
          -0.08188537508249283
        ],
        [
          -0.0006742542609572411,
          0.031439028680324554,
          0.06108400225639343,
          -0.09434466809034348
        ],
        [
          0.0012962032342329621,
          0.015021332539618015,
          0.016315801069140434,
          -0.07126938551664352
        ],
        [
          -0.00018319413356948644,
          0.015129492618143559,
          0.02833728864789009,
          -0.04768666625022888
        ],
        [
          0.0013178734807297587,
          0.015280429273843765,
          0.017687814310193062,
          -0.06699680536985397
        ],
        [
          -0.0005035297363065183,
          0.03868610039353371,
          0.07336316257715225,
          -0.11215168237686157
        ],
        [
          0.00150673883035779,
          0.017470277845859528,
          0.02022266574203968,
          -0.0765981674194336
        ],
        [
          -0.0006675023469142616,
          0.029723407700657845,
          0.05868012458086014,
          -0.081963911652565
        ],
        [
          0.0013178735971450806,
          0.015280431136488914,
          0.017687814310193062,
          -0.06699681282043457
        ],
        [
          -0.0001888692786451429,
          0.014512041583657265,
          0.02769041247665882,
          -0.0420670360326767
        ],
        [
          0.0013365178601816297,
          0.015488526783883572,
          0.01682325452566147,
          -0.07366816699504852
        ],
        [
          -0.0005936634843237698,
          0.042943648993968964,
          0.08054909110069275,
          -0.13450753688812256
        ],
        [
          0.0015216231113299727,
          0.01763365976512432,
          0.01915324479341507,
          -0.08387106657028198
        ],
        [
          -0.0007579209050163627,
          0.03245237469673157,
          0.06354475766420364,
          -0.09662362188100815
        ],
        [
          0.0013365178601816297,
          0.015488526783883572,
          0.01682325452566147,
          -0.07366816699504852
        ],
        [
          -0.000217705630348064,
          0.015749355778098106,
          0.02971375547349453,
          -0.04932595044374466
        ]
      ],
      "jacobian_fd": [
        [
          0.0012330710887908936,
          0.014295056462287903,
          0.01654885709285736,
          -0.06197504699230194
        ],
        [
          -0.00034123659133911133,
          0.03557726740837097,
          0.06656721234321594,
          -0.10376870632171631
        ],
        [
          0.0014368444681167603,
          0.01666434109210968,
          0.019291043281555176,
          -0.07224790751934052
        ],
        [
          -0.0005170702934265137,
          0.027783960103988647,
          0.054051727056503296,
          -0.0773310661315918
        ],
        [
          0.001231953501701355,
          0.014295801520347595,
          0.01654811203479767,
          -0.061974674463272095
        ],
        [
          -0.00012889504432678223,
          0.013345852494239807,
          0.02512168139219284,
          -0.03892239183187485
        ],
        [
          0.0012543052434921265,
          0.01453794538974762,
          0.015792250633239746,
          -0.06879158318042755
        ],
        [
          -0.00041425228118896484,
          0.039624422788619995,
          0.07326826453208923,
          -0.12563318014144897
        ],
        [
          0.0014547258615493774,
          0.016863644123077393,
          0.018317997455596924,
          -0.0797957181930542
        ],
        [
          -0.0005953013896942139,
          0.03041774034500122,
          0.058644264936447144,
          -0.09195655584335327
        ],
        [
          0.0012539327144622803,
          0.014538690447807312,
          0.0157918781042099,
          -0.06879232823848724
        ],
        [
          -0.00015236437320709229,
          0.014532357454299927,
          0.027025118470191956,
          -0.046072155237197876
        ],
        [
          0.0012755393981933594,
          0.014794990420341492,
          0.01712702214717865,
          -0.0645071268081665
        ],
        [
          -0.0004202127456665039,
          0.03716275095939636,
          0.06999745965003967,
          -0.10808780789375305
        ],
        [
          0.0014722347259521484,
          0.017076730728149414,
          0.019768625497817993,
          -0.07445737719535828
        ],
        [
          -0.0005908310413360596,
          0.028751790523529053,
          0.05634501576423645,
          -0.0796683132648468
        ],
        [
          0.0012762844562530518,
          0.014794990420341492,
          0.01712702214717865,
          -0.0645071268081665
        ],
        [
          -0.00015702098608016968,
          0.013915635645389557,
          0.02637133002281189,
          -0.04047080874443054
        ],
        [
          0.0012960284948349,
          0.015020743012428284,
          0.016316398978233337,
          -0.07127150893211365
        ],
        [
          -0.0005006790161132812,
          0.04132911562919617,
          0.07696524262428284,
          -0.13028457760810852
        ],
        [
          0.0014886260032653809,
          0.017258524894714355,
          0.018747150897979736,
          -0.08188635110855103
        ],
        [
          -0.0006742775440216064,
          0.031438469886779785,
          0.06108507513999939,
          -0.09434595704078674
        ],
        [
          0.0012960284948349,
          0.015021488070487976,
          0.016316398978233337,
          -0.07127076387405396
        ],
        [
          -0.00018328428268432617,
          0.015129521489143372,
          0.028337538242340088,
          -0.04768744111061096
        ],
        [
          0.001317635178565979,
          0.015281140804290771,
          0.01768842339515686,
          -0.06699897348880768
        ],
        [
          -0.0005036592483520508,
          0.038686394691467285,
          0.07336437702178955,
          -0.11215433478355408
        ],
        [
          0.001506507396697998,
          0.017470121383666992,
          0.020223110914230347,
          -0.07660016417503357
        ],
        [
          -0.000667572021484375,
          0.029722601175308228,
          0.05868002772331238,
          -0.08196532726287842
        ],
        [
          0.0013172626495361328,
          0.015280768275260925,
          0.017689168453216553,
          -0.06699897348880768
        ],
        [
          -0.00018887221813201904,
          0.014511868357658386,
          0.027691200375556946,
          -0.04206821322441101
        ],
        [
          0.0013366341590881348,
          0.015487894415855408,
          0.016824528574943542,
          -0.07366947829723358
        ],
        [
          -0.0005930662155151367,
          0.04294067621231079,
          0.0805489718914032,
          -0.13451054692268372
        ],
        [
          0.0015214085578918457,
          0.017633289098739624,
          0.01915469765663147,
          -0.08387267589569092
        ],
        [
          -0.0007584691047668457,
          0.03245100378990173,
          0.06354525685310364,
          -0.09662508964538574
        ],
        [
          0.0013355165719985962,
          0.0154886394739151,
          0.016824528574943542,
          -0.07367022335529327
        ],
        [
          -0.00021830201148986816,
          0.015749037265777588,
          0.02971440553665161,
          -0.04932768642902374
        ]
      ],
      "tangent_ad": [
        -0.014948076568543911,
        -0.0009815171360969543,
        -0.017425864934921265,
        0.0019957125186920166,
        -0.014948079362511635,
        -0.00029096752405166626,
        -0.018602756783366203,
        -0.0065758079290390015,
        -0.021578636020421982,
        -0.0017434712499380112,
        -0.018602758646011353,
        -0.0023327944800257683,
        -0.015653371810913086,
        -0.0006719902157783508,
        -0.01806804910302162,
        0.002420807257294655,
        -0.015653371810913086,
        -0.00016937870532274246,
        -0.019318021833896637,
        -0.006243251264095306,
        -0.02219555899500847,
        -0.001247946172952652,
        -0.019318025559186935,
        -0.002201540395617485,
        -0.016355343163013458,
        -0.00030297785997390747,
        -0.018699243664741516,
        0.0028860587626695633,
        -0.016355346888303757,
        -2.672523260116577e-05,
        -0.020009933039546013,
        -0.005804229527711868,
        -0.022781267762184143,
        -0.0006922036409378052,
        -0.020009933039546013,
        -0.002040271647274494
      ],
      "tangent_fd": [
        -0.014948099851608276,
        -0.0009834766387939453,
        -0.017426535487174988,
        0.001993030309677124,
        -0.014948844909667969,
        -0.00029224902391433716,
        -0.018602609634399414,
        -0.0065773725509643555,
        -0.021579116582870483,
        -0.0017449259757995605,
        -0.018603354692459106,
        -0.002333521842956543,
        -0.015653297305107117,
        -0.0006742775440216064,
        -0.018068403005599976,
        0.002419203519821167,
        -0.015653669834136963,
        -0.00017024576663970947,
        -0.019318237900733948,
        -0.006245821714401245,
        -0.02219676971435547,
        -0.0012509524822235107,
        -0.01931898295879364,
        -0.00220276415348053,
        -0.016355887055397034,
        -0.00030621886253356934,
        -0.01869872212409973,
        0.0028848648071289062,
        -0.016355887055397034,
        -2.7939677238464355e-05,
        -0.02001039683818817,
        -0.005806982517242432,
        -0.02278164029121399,
        -0.0006943941116333008,
        -0.020010024309158325,
        -0.0020407140254974365
      ],
      "finite_difference_parallel": {
        "requested_workers": 2,
        "effective_workers": 2,
        "executor": "thread",
        "identity_contract": "parallel finite-difference columns must match serial columns"
      }
    },
    "conditioning_gate": {
      "passed": true,
      "finite_jacobian": true,
      "sensitivity_map_rank": 4,
      "min_rank": 4,
      "rank_deficiency": 0,
      "jacobian_condition_number": 3533.2246364735543,
      "condition_number_limit": 100000000.0,
      "smallest_singular_value": 0.00015809495431590644,
      "singular_values": [
        0.5585849874911217,
        0.0856010523231012,
        0.0022451616277635476,
        0.00015809495431590644
      ]
    },
    "covariance": {
      "sigma2": 0.003804102255694328,
      "covariance": [
        [
          123839.79340022677,
          -47860.542617394545,
          21726.378857133423,
          -2817.1847999172114
        ],
        [
          -47860.542617394545,
          19296.453768710664,
          -8634.76428650293,
          1205.0246823437774
        ],
        [
          21726.378857133423,
          -8634.76428650293,
          3883.012549420186,
          -528.6554164157488
        ],
        [
          -2817.1847999172114,
          1205.0246823437774,
          -528.6554164157488,
          81.10687854381412
        ]
      ],
      "covariance_std": [
        351.9087856252338,
        138.9116761424707,
        62.3138231006587,
        9.005935739489491
      ],
      "covariance_correlation": [
        [
          1.0000000000000002,
          -0.9790587588442634,
          0.9907699862403482,
          -0.8889071168361148
        ],
        [
          -0.9790587588442634,
          1.0,
          -0.9975331519039157,
          0.9632263334130021
        ],
        [
          0.9907699862403482,
          -0.9975331519039157,
          1.0,
          -0.9420185292475073
        ],
        [
          -0.8889071168361148,
          0.9632263334130021,
          -0.9420185292475073,
          1.0
        ]
      ],
      "covariance_eigenvalues": [
        0.012191963733633914,
        0.5191512641512633,
        754.5200974440897,
        146345.31515622942
      ],
      "uq_ellipse_area_1sigma": 33012.216976608615,
      "jacobian_singular_values": [
        0.5585849874911217,
        0.0856010523231012,
        0.0022451616277635476,
        0.00015809495431590644
      ],
      "jacobian_condition_number": 3533.2246364735543,
      "sensitivity_map_rank": 4,
      "source": "objective_portfolio_rows"
    }
  },
  "config": {
    "target_aspect": 7.0,
    "target_iota": 0.41,
    "max_mode": 1,
    "aspect_weight": 0.25,
    "iota_weight": 25.0,
    "qa_weight": 5.0,
    "turbulence_weight": 1.0,
    "regularization": 0.002,
    "learning_rate": 0.035,
    "steps": 90,
    "nonlinear_dt": 0.18,
    "nonlinear_steps": 520,
    "nonlinear_tail_fraction": 0.25,
    "quasilinear_csat": 0.75,
    "fd_step": 0.0001
  },
  "next_action": "Replace the reduced surrogate row producer with real vmex -> booz_xform_jax -> SPECTRAX-GK rows, then rerun the same gate with held-out surface/alpha samples before optimization claims."
}